{
"name": "flare",
"children": [
{
"name": "tree0",
"children": [
  {
      "nodeid": 0,
      "depth": 0,
      "name": "getInstallerPackageName",
      "size": 1,
      "yes": 1,
      "no": 2,
      "missing": 1,
      "children": [
        {
          "nodeid": 1,
          "depth": 1,
          "name": "resolveIntent",
          "size": 4,
          "yes": 3,
          "no": 4,
          "missing": 3,
          "children": [
            {
              "nodeid": 3,
              "depth": 2,
              "name": "_newselect",
              "size": 1,
              "yes": 7,
              "no": 8,
              "missing": 7,
              "children": [
                {
                  "nodeid": 7,
                  "depth": 3,
                  "name": "queryIntentServices",
                  "size": 1,
                  "yes": 15,
                  "no": 16,
                  "missing": 15,
                  "children": [
                    {
                      "nodeid": 15,
                      "depth": 4,
                      "name": "uname",
                      "size": 2,
                      "yes": 23,
                      "no": 24,
                      "missing": 23,
                      "children": [
                        {
                          "nodeid": 23,
                          "depth": 5,
                          "name": "getDeviceId",
                          "size": 1,
                          "yes": 33,
                          "no": 34,
                          "missing": 33,
                          "children": [
                            {
                              "nodeid": 33,
                              "leaf": -0.191962928
                            },
                            {
                              "nodeid": 34,
                              "leaf": -0.293150187
                            }
                          ]
                        },
                        {
                          "nodeid": 24,
                          "depth": 5,
                          "name": "socket",
                          "size": 23,
                          "yes": 35,
                          "no": 36,
                          "missing": 35,
                          "children": [
                            {
                              "nodeid": 35,
                              "leaf": 0.852569103
                            },
                            {
                              "nodeid": 36,
                              "leaf": -0.104472853
                            }
                          ]
                        }
                      ]
                    },
                    {
                      "nodeid": 16,
                      "depth": 4,
                      "name": "getDeviceId",
                      "size": 1,
                      "yes": 25,
                      "no": 26,
                      "missing": 25,
                      "children": [
                        {
                          "nodeid": 25,
                          "depth": 5,
                          "name": "lseek",
                          "size": 87,
                          "yes": 37,
                          "no": 38,
                          "missing": 37,
                          "children": [
                            {
                              "nodeid": 37,
                              "leaf": 1.37085187
                            },
                            {
                              "nodeid": 38,
                              "leaf": -0.132558137
                            }
                          ]
                        },
                        {
                          "nodeid": 26,
                          "depth": 5,
                          "name": "_llseek",
                          "size": 8,
                          "yes": 39,
                          "no": 40,
                          "missing": 39,
                          "children": [
                            {
                              "nodeid": 39,
                              "leaf": 0.268421024
                            },
                            {
                              "nodeid": 40,
                              "leaf": -0.262149543
                            }
                          ]
                        }
                      ]
                    }
                  ]
                },
                {
                  "nodeid": 8,
                  "depth": 3,
                  "name": "getDeviceId",
                  "size": 1,
                  "yes": 17,
                  "no": 18,
                  "missing": 17,
                  "children": [
                    {
                      "nodeid": 17,
                      "depth": 4,
                      "name": "set",
                      "size": 2,
                      "yes": 27,
                      "no": 28,
                      "missing": 27,
                      "children": [
                        {
                          "nodeid": 27,
                          "depth": 5,
                          "name": "writev",
                          "size": 1302,
                          "yes": 41,
                          "no": 42,
                          "missing": 41,
                          "children": [
                            {
                              "nodeid": 41,
                              "leaf": 1.37124813
                            },
                            {
                              "nodeid": 42,
                              "leaf": 0.202325568
                            }
                          ]
                        },
                        {
                          "nodeid": 28,
                          "depth": 5,
                          "name": "NETWORK_ACCESS(WRITE)____",
                          "size": 2,
                          "yes": 43,
                          "no": 44,
                          "missing": 43,
                          "children": [
                            {
                              "nodeid": 43,
                              "leaf": 0.830232501
                            },
                            {
                              "nodeid": 44,
                              "leaf": -0.233333334
                            }
                          ]
                        }
                      ]
                    },
                    {
                      "nodeid": 18,
                      "depth": 4,
                      "name": "FS_PIPE_ACCESS(READ)___",
                      "size": 1,
                      "yes": 29,
                      "no": 30,
                      "missing": 29,
                      "children": [
                        {
                          "nodeid": 29,
                          "depth": 5,
                          "name": "sendto",
                          "size": 4,
                          "yes": 45,
                          "no": 46,
                          "missing": 45,
                          "children": [
                            {
                              "nodeid": 45,
                              "leaf": 0.792857111
                            },
                            {
                              "nodeid": 46,
                              "leaf": -0.0604095645
                            }
                          ]
                        },
                        {
                          "nodeid": 30,
                          "depth": 5,
                          "name": "ftruncate",
                          "size": 2,
                          "yes": 47,
                          "no": 48,
                          "missing": 47,
                          "children": [
                            {
                              "nodeid": 47,
                              "leaf": -0.290570438
                            },
                            {
                              "nodeid": 48,
                              "leaf": 0.0686746836
                            }
                          ]
                        }
                      ]
                    }
                  ]
                }
              ]
            },
            {
              "nodeid": 4,
              "depth": 2,
              "name": "getSubscriberId",
              "size": 1,
              "yes": 9,
              "no": 10,
              "missing": 9,
              "children": [
                {
                  "nodeid": 9,
                  "depth": 3,
                  "name": "getApplicationInfo",
                  "size": 25,
                  "yes": 19,
                  "no": 20,
                  "missing": 19,
                  "children": [
                    {
                      "nodeid": 19,
                      "leaf": 1.41063821
                    },
                    {
                      "nodeid": 20,
                      "leaf": 0.411627889
                    }
                  ]
                },
                {
                  "nodeid": 10,
                  "leaf": -0.132558137
                }
              ]
            }
          ]
        },
        {
          "nodeid": 2,
          "depth": 1,
          "name": "getSubscriberId",
          "size": 1,
          "yes": 5,
          "no": 6,
          "missing": 5,
          "children": [
            {
              "nodeid": 5,
              "depth": 2,
              "name": "isAdminActive",
              "size": 1,
              "yes": 11,
              "no": 12,
              "missing": 11,
              "children": [
                {
                  "nodeid": 11,
                  "leaf": 1.46377242
                },
                {
                  "nodeid": 12,
                  "leaf": 0.337499976
                }
              ]
            },
            {
              "nodeid": 6,
              "depth": 2,
              "name": "sigprocmask",
              "size": 87,
              "yes": 13,
              "no": 14,
              "missing": 13,
              "children": [
                {
                  "nodeid": 13,
                  "leaf": -0.201369867
                },
                {
                  "nodeid": 14,
                  "depth": 3,
                  "name": "getSubscriberId",
                  "size": 19,
                  "yes": 21,
                  "no": 22,
                  "missing": 21,
                  "children": [
                    {
                      "nodeid": 21,
                      "depth": 4,
                      "name": "getApplicationInfo",
                      "size": 5,
                      "yes": 31,
                      "no": 32,
                      "missing": 31,
                      "children": [
                        {
                          "nodeid": 31,
                          "leaf": -0
                        },
                        {
                          "nodeid": 32,
                          "leaf": 1.26075935
                        }
                      ]
                    },
                    {
                      "nodeid": 22,
                      "leaf": -0.175862074
                    }
                  ]
                }
              ]
            }
          ]
        }
      ]
    }
]},
{
"name": "tree1",
"children": [
  {
      "nodeid": 0,
      "depth": 0,
      "name": "getInstallerPackageName",
      "size": 1,
      "yes": 1,
      "no": 2,
      "missing": 1,
      "children": [
        {
          "nodeid": 1,
          "depth": 1,
          "name": "getActivityInfo",
          "size": 3,
          "yes": 3,
          "no": 4,
          "missing": 3,
          "children": [
            {
              "nodeid": 3,
              "depth": 2,
              "name": "FS_ACCESS(CREATE__READ__WRITE)",
              "size": 9,
              "yes": 7,
              "no": 8,
              "missing": 7,
              "children": [
                {
                  "nodeid": 7,
                  "depth": 3,
                  "name": "queryIntentServices",
                  "size": 1,
                  "yes": 15,
                  "no": 16,
                  "missing": 15,
                  "children": [
                    {
                      "nodeid": 15,
                      "depth": 4,
                      "name": "getLine1Number",
                      "size": 1,
                      "yes": 29,
                      "no": 30,
                      "missing": 29,
                      "children": [
                        {
                          "nodeid": 29,
                          "depth": 5,
                          "name": "getInTouchMode",
                          "size": 1,
                          "yes": 47,
                          "no": 48,
                          "missing": 47,
                          "children": [
                            {
                              "nodeid": 47,
                              "leaf": -0.174883083
                            },
                            {
                              "nodeid": 48,
                              "leaf": 0.0757589787
                            }
                          ]
                        },
                        {
                          "nodeid": 30,
                          "depth": 5,
                          "name": "finishInput",
                          "size": 2,
                          "yes": 49,
                          "no": 50,
                          "missing": 49,
                          "children": [
                            {
                              "nodeid": 49,
                              "leaf": -0.272898704
                            },
                            {
                              "nodeid": 50,
                              "leaf": 0.177264765
                            }
                          ]
                        }
                      ]
                    },
                    {
                      "nodeid": 16,
                      "depth": 4,
                      "name": "queryIntentReceivers",
                      "size": 1,
                      "yes": 31,
                      "no": 32,
                      "missing": 31,
                      "children": [
                        {
                          "nodeid": 31,
                          "depth": 5,
                          "name": "getConnectionInfo",
                          "size": 2,
                          "yes": 51,
                          "no": 52,
                          "missing": 51,
                          "children": [
                            {
                              "nodeid": 51,
                              "leaf": 0.516382694
                            },
                            {
                              "nodeid": 52,
                              "leaf": -0.210938051
                            }
                          ]
                        },
                        {
                          "nodeid": 32,
                          "depth": 5,
                          "name": "queryIntentServices",
                          "size": 2,
                          "yes": 53,
                          "no": 54,
                          "missing": 53,
                          "children": [
                            {
                              "nodeid": 53,
                              "leaf": 0.235771507
                            },
                            {
                              "nodeid": 54,
                              "leaf": -0.260450363
                            }
                          ]
                        }
                      ]
                    }
                  ]
                },
                {
                  "nodeid": 8,
                  "depth": 3,
                  "name": "getConnectionInfo",
                  "size": 2,
                  "yes": 17,
                  "no": 18,
                  "missing": 17,
                  "children": [
                    {
                      "nodeid": 17,
                      "depth": 4,
                      "name": "mmap2",
                      "size": 375,
                      "yes": 33,
                      "no": 34,
                      "missing": 33,
                      "children": [
                        {
                          "nodeid": 33,
                          "leaf": -0.138223901
                        },
                        {
                          "nodeid": 34,
                          "depth": 5,
                          "name": "NETWORK_ACCESS(READ__WRITE)__",
                          "size": 37,
                          "yes": 55,
                          "no": 56,
                          "missing": 55,
                          "children": [
                            {
                              "nodeid": 55,
                              "leaf": 0.535409391
                            },
                            {
                              "nodeid": 56,
                              "leaf": -0
                            }
                          ]
                        }
                      ]
                    },
                    {
                      "nodeid": 18,
                      "depth": 4,
                      "name": "pread64",
                      "size": 477,
                      "yes": 35,
                      "no": 36,
                      "missing": 35,
                      "children": [
                        {
                          "nodeid": 35,
                          "leaf": -0.161497056
                        },
                        {
                          "nodeid": 36,
                          "leaf": -0
                        }
                      ]
                    }
                  ]
                }
              ]
            },
            {
              "nodeid": 4,
              "depth": 2,
              "name": "NETWORK_ACCESS(WRITE)____",
              "size": 4,
              "yes": 9,
              "no": 10,
              "missing": 9,
              "children": [
                {
                  "nodeid": 9,
                  "depth": 3,
                  "name": "mprotect",
                  "size": 460,
                  "yes": 19,
                  "no": 20,
                  "missing": 19,
                  "children": [
                    {
                      "nodeid": 19,
                      "depth": 4,
                      "name": "getPackageInfo",
                      "size": 3,
                      "yes": 37,
                      "no": 38,
                      "missing": 37,
                      "children": [
                        {
                          "nodeid": 37,
                          "depth": 5,
                          "name": "sigprocmask",
                          "size": 203,
                          "yes": 57,
                          "no": 58,
                          "missing": 57,
                          "children": [
                            {
                              "nodeid": 57,
                              "leaf": 0.0383554325
                            },
                            {
                              "nodeid": 58,
                              "leaf": 0.77633965
                            }
                          ]
                        },
                        {
                          "nodeid": 38,
                          "depth": 5,
                          "name": "addToDisplay",
                          "size": 6,
                          "yes": 59,
                          "no": 60,
                          "missing": 59,
                          "children": [
                            {
                              "nodeid": 59,
                              "leaf": -0.190499187
                            },
                            {
                              "nodeid": 60,
                              "leaf": 0.311048925
                            }
                          ]
                        }
                      ]
                    },
                    {
                      "nodeid": 20,
                      "depth": 4,
                      "name": "windowGainedFocus",
                      "size": 1,
                      "yes": 39,
                      "no": 40,
                      "missing": 39,
                      "children": [
                        {
                          "nodeid": 39,
                          "depth": 5,
                          "name": "_newselect",
                          "size": 7,
                          "yes": 61,
                          "no": 62,
                          "missing": 61,
                          "children": [
                            {
                              "nodeid": 61,
                              "leaf": -0.153088436
                            },
                            {
                              "nodeid": 62,
                              "leaf": 0.170301482
                            }
                          ]
                        },
                        {
                          "nodeid": 40,
                          "depth": 5,
                          "name": "connect",
                          "size": 3,
                          "yes": 63,
                          "no": 64,
                          "missing": 63,
                          "children": [
                            {
                              "nodeid": 63,
                              "leaf": 1.00258255
                            },
                            {
                              "nodeid": 64,
                              "leaf": 0.505493045
                            }
                          ]
                        }
                      ]
                    }
                  ]
                },
                {
                  "nodeid": 10,
                  "depth": 3,
                  "name": "read",
                  "size": 8473,
                  "yes": 21,
                  "no": 22,
                  "missing": 21,
                  "children": [
                    {
                      "nodeid": 21,
                      "depth": 4,
                      "name": "mprotect",
                      "size": 2759,
                      "yes": 41,
                      "no": 42,
                      "missing": 41,
                      "children": [
                        {
                          "nodeid": 41,
                          "depth": 5,
                          "name": "lseek",
                          "size": 15,
                          "yes": 65,
                          "no": 66,
                          "missing": 65,
                          "children": [
                            {
                              "nodeid": 65,
                              "leaf": -0
                            },
                            {
                              "nodeid": 66,
                              "leaf": -0.27330935
                            }
                          ]
                        },
                        {
                          "nodeid": 42,
                          "depth": 5,
                          "name": "FS_ACCESS(CREATE)____",
                          "size": 47,
                          "yes": 67,
                          "no": 68,
                          "missing": 67,
                          "children": [
                            {
                              "nodeid": 67,
                              "leaf": -0
                            },
                            {
                              "nodeid": 68,
                              "leaf": 0.205936775
                            }
                          ]
                        }
                      ]
                    },
                    {
                      "nodeid": 22,
                      "depth": 4,
                      "name": "getInstalledPackages",
                      "size": 1,
                      "yes": 43,
                      "no": 44,
                      "missing": 43,
                      "children": [
                        {
                          "nodeid": 43,
                          "leaf": 0.386737466
                        },
                        {
                          "nodeid": 44,
                          "leaf": -0.107302554
                        }
                      ]
                    }
                  ]
                }
              ]
            }
          ]
        },
        {
          "nodeid": 2,
          "depth": 1,
          "name": "FS_PIPE_ACCESS(READ__)_",
          "size": 1,
          "yes": 5,
          "no": 6,
          "missing": 5,
          "children": [
            {
              "nodeid": 5,
              "depth": 2,
              "name": "isAdminActive",
              "size": 2,
              "yes": 11,
              "no": 12,
              "missing": 11,
              "children": [
                {
                  "nodeid": 11,
                  "depth": 3,
                  "name": "ioctl",
                  "size": 77,
                  "yes": 23,
                  "no": 24,
                  "missing": 23,
                  "children": [
                    {
                      "nodeid": 23,
                      "leaf": 0.0470615514
                    },
                    {
                      "nodeid": 24,
                      "depth": 4,
                      "name": "getBestProvider",
                      "size": 7,
                      "yes": 45,
                      "no": 46,
                      "missing": 45,
                      "children": [
                        {
                          "nodeid": 45,
                          "depth": 5,
                          "name": "inotify_add_watch",
                          "size": 7,
                          "yes": 69,
                          "no": 70,
                          "missing": 69,
                          "children": [
                            {
                              "nodeid": 69,
                              "leaf": 0.463899225
                            },
                            {
                              "nodeid": 70,
                              "leaf": 0.0641471669
                            }
                          ]
                        },
                        {
                          "nodeid": 46,
                          "leaf": 0.0499063469
                        }
                      ]
                    }
                  ]
                },
                {
                  "nodeid": 12,
                  "leaf": -0
                }
              ]
            },
            {
              "nodeid": 6,
              "depth": 2,
              "name": "chmod",
              "size": 31,
              "yes": 13,
              "no": 14,
              "missing": 13,
              "children": [
                {
                  "nodeid": 13,
                  "depth": 3,
                  "name": "FS_ACCESS(CREATE__READ)__",
                  "size": 2,
                  "yes": 25,
                  "no": 26,
                  "missing": 25,
                  "children": [
                    {
                      "nodeid": 25,
                      "leaf": -0.304787666
                    },
                    {
                      "nodeid": 26,
                      "leaf": 0.0612221211
                    }
                  ]
                },
                {
                  "nodeid": 14,
                  "depth": 3,
                  "name": "getProviders",
                  "size": 2,
                  "yes": 27,
                  "no": 28,
                  "missing": 27,
                  "children": [
                    {
                      "nodeid": 27,
                      "leaf": 0.443912923
                    },
                    {
                      "nodeid": 28,
                      "leaf": -0.127169415
                    }
                  ]
                }
              ]
            }
          ]
        }
      ]
    }
]},
{
"name": "tree2",
"children": [
{
      "nodeid": 0,
      "depth": 0,
      "name": "_newselect",
      "size": 1,
      "yes": 1,
      "no": 2,
      "missing": 1,
      "children": [
        {
          "nodeid": 1,
          "depth": 1,
          "name": "ACCESS_PERSONAL_INFO___",
          "size": 1,
          "yes": 3,
          "no": 4,
          "missing": 3,
          "children": [
            {
              "nodeid": 3,
              "depth": 2,
              "name": "writev",
              "size": 31,
              "yes": 7,
              "no": 8,
              "missing": 7,
              "children": [
                {
                  "nodeid": 7,
                  "depth": 3,
                  "name": "FS_ACCESS(CREATE__WRITE)__",
                  "size": 9,
                  "yes": 15,
                  "no": 16,
                  "missing": 15,
                  "children": [
                    {
                      "nodeid": 15,
                      "depth": 4,
                      "name": "clock_gettime",
                      "size": 31,
                      "yes": 31,
                      "no": 32,
                      "missing": 31,
                      "children": [
                        {
                          "nodeid": 31,
                          "depth": 5,
                          "name": "brk",
                          "size": 11,
                          "yes": 53,
                          "no": 54,
                          "missing": 53,
                          "children": [
                            {
                              "nodeid": 53,
                              "leaf": -0.0747099966
                            },
                            {
                              "nodeid": 54,
                              "leaf": 0.438839376
                            }
                          ]
                        },
                        {
                          "nodeid": 32,
                          "depth": 5,
                          "name": "addToDisplayWithoutInputChannel",
                          "size": 1,
                          "yes": 55,
                          "no": 56,
                          "missing": 55,
                          "children": [
                            {
                              "nodeid": 55,
                              "leaf": -0.186697498
                            },
                            {
                              "nodeid": 56,
                              "leaf": 0.64577508
                            }
                          ]
                        }
                      ]
                    },
                    {
                      "nodeid": 16,
                      "depth": 4,
                      "name": "fchmod",
                      "size": 2,
                      "yes": 33,
                      "no": 34,
                      "missing": 33,
                      "children": [
                        {
                          "nodeid": 33,
                          "leaf": 0.938189685
                        },
                        {
                          "nodeid": 34,
                          "leaf": 0.209843174
                        }
                      ]
                    }
                  ]
                },
                {
                  "nodeid": 8,
                  "depth": 3,
                  "name": "mmap2",
                  "size": 87,
                  "yes": 17,
                  "no": 18,
                  "missing": 17,
                  "children": [
                    {
                      "nodeid": 17,
                      "depth": 4,
                      "name": "sigprocmask",
                      "size": 2,
                      "yes": 35,
                      "no": 36,
                      "missing": 35,
                      "children": [
                        {
                          "nodeid": 35,
                          "depth": 5,
                          "name": "gettimeofday",
                          "size": 5,
                          "yes": 57,
                          "no": 58,
                          "missing": 57,
                          "children": [
                            {
                              "nodeid": 57,
                              "leaf": 0.792967081
                            },
                            {
                              "nodeid": 58,
                              "leaf": 0.0486230552
                            }
                          ]
                        },
                        {
                          "nodeid": 36,
                          "depth": 5,
                          "name": "brk",
                          "size": 33,
                          "yes": 59,
                          "no": 60,
                          "missing": 59,
                          "children": [
                            {
                              "nodeid": 59,
                              "leaf": -0.214117989
                            },
                            {
                              "nodeid": 60,
                              "leaf": 0.243458629
                            }
                          ]
                        }
                      ]
                    },
                    {
                      "nodeid": 18,
                      "depth": 4,
                      "name": "getpriority",
                      "size": 33,
                      "yes": 37,
                      "no": 38,
                      "missing": 37,
                      "children": [
                        {
                          "nodeid": 37,
                          "depth": 5,
                          "name": "ugetrlimit",
                          "size": 2,
                          "yes": 61,
                          "no": 62,
                          "missing": 61,
                          "children": [
                            {
                              "nodeid": 61,
                              "leaf": 0.902789593
                            },
                            {
                              "nodeid": 62,
                              "leaf": -0.120805472
                            }
                          ]
                        },
                        {
                          "nodeid": 38,
                          "depth": 5,
                          "name": "windowGainedFocus",
                          "size": 2,
                          "yes": 63,
                          "no": 64,
                          "missing": 63,
                          "children": [
                            {
                              "nodeid": 63,
                              "leaf": 0.0763492659
                            },
                            {
                              "nodeid": 64,
                              "leaf": 0.383446485
                            }
                          ]
                        }
                      ]
                    }
                  ]
                }
              ]
            },
            {
              "nodeid": 4,
              "depth": 2,
              "name": "resolveIntent",
              "size": 3,
              "yes": 9,
              "no": 10,
              "missing": 9,
              "children": [
                {
                  "nodeid": 9,
                  "depth": 3,
                  "name": "getAccountsAsUser",
                  "size": 1,
                  "yes": 19,
                  "no": 20,
                  "missing": 19,
                  "children": [
                    {
                      "nodeid": 19,
                      "depth": 4,
                      "name": "getInstallerPackageName",
                      "size": 1,
                      "yes": 39,
                      "no": 40,
                      "missing": 39,
                      "children": [
                        {
                          "nodeid": 39,
                          "depth": 5,
                          "name": "read",
                          "size": 19,
                          "yes": 65,
                          "no": 66,
                          "missing": 65,
                          "children": [
                            {
                              "nodeid": 65,
                              "leaf": 0.321330935
                            },
                            {
                              "nodeid": 66,
                              "leaf": -0.255150408
                            }
                          ]
                        },
                        {
                          "nodeid": 40,
                          "depth": 5,
                          "name": "remove",
                          "size": 1,
                          "yes": 67,
                          "no": 68,
                          "missing": 67,
                          "children": [
                            {
                              "nodeid": 67,
                              "leaf": -0.0560177341
                            },
                            {
                              "nodeid": 68,
                              "leaf": 0.291400045
                            }
                          ]
                        }
                      ]
                    },
                    {
                      "nodeid": 20,
                      "depth": 4,
                      "name": "access",
                      "size": 289,
                      "yes": 41,
                      "no": 42,
                      "missing": 41,
                      "children": [
                        {
                          "nodeid": 41,
                          "depth": 5,
                          "name": "releaseWakeLock",
                          "size": 1,
                          "yes": 69,
                          "no": 70,
                          "missing": 69,
                          "children": [
                            {
                              "nodeid": 69,
                              "leaf": 0.765863299
                            },
                            {
                              "nodeid": 70,
                              "leaf": 0.216716811
                            }
                          ]
                        },
                        {
                          "nodeid": 42,
                          "leaf": -0.127833083
                        }
                      ]
                    }
                  ]
                },
                {
                  "nodeid": 10,
                  "depth": 3,
                  "name": "NETWORK_ACCESS(WRITE)____",
                  "size": 6,
                  "yes": 21,
                  "no": 22,
                  "missing": 21,
                  "children": [
                    {
                      "nodeid": 21,
                      "depth": 4,
                      "name": "sigprocmask",
                      "size": 31,
                      "yes": 43,
                      "no": 44,
                      "missing": 43,
                      "children": [
                        {
                          "nodeid": 43,
                          "leaf": -0
                        },
                        {
                          "nodeid": 44,
                          "leaf": 0.36190033
                        }
                      ]
                    },
                    {
                      "nodeid": 22,
                      "leaf": -0.111851469
                    }
                  ]
                }
              ]
            }
          ]
        },
        {
          "nodeid": 2,
          "depth": 1,
          "name": "FS_PIPE_ACCESS(READ)___",
          "size": 7,
          "yes": 5,
          "no": 6,
          "missing": 5,
          "children": [
            {
              "nodeid": 5,
              "depth": 2,
              "name": "FS_PIPE_ACCESS(READ)___",
              "size": 1,
              "yes": 11,
              "no": 12,
              "missing": 11,
              "children": [
                {
                  "nodeid": 11,
                  "depth": 3,
                  "name": "send",
                  "size": 1,
                  "yes": 23,
                  "no": 24,
                  "missing": 23,
                  "children": [
                    {
                      "nodeid": 23,
                      "depth": 4,
                      "name": "munmap",
                      "size": 30,
                      "yes": 45,
                      "no": 46,
                      "missing": 45,
                      "children": [
                        {
                          "nodeid": 45,
                          "depth": 5,
                          "name": "getpid",
                          "size": 44,
                          "yes": 71,
                          "no": 72,
                          "missing": 71,
                          "children": [
                            {
                              "nodeid": 71,
                              "leaf": 0.16455625
                            },
                            {
                              "nodeid": 72,
                              "leaf": -0.166990295
                            }
                          ]
                        },
                        {
                          "nodeid": 46,
                          "depth": 5,
                          "name": "nanosleep",
                          "size": 5896,
                          "yes": 73,
                          "no": 74,
                          "missing": 73,
                          "children": [
                            {
                              "nodeid": 73,
                              "leaf": 0.369497001
                            },
                            {
                              "nodeid": 74,
                              "leaf": -0
                            }
                          ]
                        }
                      ]
                    },
                    {
                      "nodeid": 24,
                      "depth": 4,
                      "name": "clock_gettime",
                      "size": 1683,
                      "yes": 47,
                      "no": 48,
                      "missing": 47,
                      "children": [
                        {
                          "nodeid": 47,
                          "depth": 5,
                          "name": "nanosleep",
                          "size": 57,
                          "yes": 75,
                          "no": 76,
                          "missing": 75,
                          "children": [
                            {
                              "nodeid": 75,
                              "leaf": -0.297539651
                            },
                            {
                              "nodeid": 76,
                              "leaf": 0.0263698529
                            }
                          ]
                        },
                        {
                          "nodeid": 48,
                          "depth": 5,
                          "name": "getConnectionInfo",
                          "size": 4,
                          "yes": 77,
                          "no": 78,
                          "missing": 77,
                          "children": [
                            {
                              "nodeid": 77,
                              "leaf": 0.306369245
                            },
                            {
                              "nodeid": 78,
                              "leaf": -0.0398924872
                            }
                          ]
                        }
                      ]
                    }
                  ]
                },
                {
                  "nodeid": 12,
                  "depth": 3,
                  "name": "mkdir",
                  "size": 17,
                  "yes": 25,
                  "no": 26,
                  "missing": 25,
                  "children": [
                    {
                      "nodeid": 25,
                      "depth": 4,
                      "name": "NETWORK_ACCESS(WRITE)____",
                      "size": 2,
                      "yes": 49,
                      "no": 50,
                      "missing": 49,
                      "children": [
                        {
                          "nodeid": 49,
                          "depth": 5,
                          "name": "writev",
                          "size": 40,
                          "yes": 79,
                          "no": 80,
                          "missing": 79,
                          "children": [
                            {
                              "nodeid": 79,
                              "leaf": -0.262233973
                            },
                            {
                              "nodeid": 80,
                              "leaf": 0.313833117
                            }
                          ]
                        },
                        {
                          "nodeid": 50,
                          "depth": 5,
                          "name": "addToDisplay",
                          "size": 8,
                          "yes": 81,
                          "no": 82,
                          "missing": 81,
                          "children": [
                            {
                              "nodeid": 81,
                              "leaf": -0.2384758
                            },
                            {
                              "nodeid": 82,
                              "leaf": 0.178937182
                            }
                          ]
                        }
                      ]
                    },
                    {
                      "nodeid": 26,
                      "depth": 4,
                      "name": "getAllNetworkInfo",
                      "size": 1,
                      "yes": 51,
                      "no": 52,
                      "missing": 51,
                      "children": [
                        {
                          "nodeid": 51,
                          "depth": 5,
                          "name": "fchmod",
                          "size": 10,
                          "yes": 83,
                          "no": 84,
                          "missing": 83,
                          "children": [
                            {
                              "nodeid": 83,
                              "leaf": 0.375267893
                            },
                            {
                              "nodeid": 84,
                              "leaf": 0.0421908833
                            }
                          ]
                        },
                        {
                          "nodeid": 52,
                          "depth": 5,
                          "name": "ACCESS_PERSONAL_INFO___",
                          "size": 7,
                          "yes": 85,
                          "no": 86,
                          "missing": 85,
                          "children": [
                            {
                              "nodeid": 85,
                              "leaf": 0.19001095
                            },
                            {
                              "nodeid": 86,
                              "leaf": -0.182039201
                            }
                          ]
                        }
                      ]
                    }
                  ]
                }
              ]
            },
            {
              "nodeid": 6,
              "depth": 2,
              "name": "getInstallerPackageName",
              "size": 1,
              "yes": 13,
              "no": 14,
              "missing": 13,
              "children": [
                {
                  "nodeid": 13,
                  "depth": 3,
                  "name": "getActiveNetworkInfo",
                  "size": 135,
                  "yes": 27,
                  "no": 28,
                  "missing": 27,
                  "children": [
                    {
                      "nodeid": 27,
                      "leaf": -0.260530502
                    },
                    {
                      "nodeid": 28,
                      "leaf": -0
                    }
                  ]
                },
                {
                  "nodeid": 14,
                  "depth": 3,
                  "name": "set",
                  "size": 9,
                  "yes": 29,
                  "no": 30,
                  "missing": 29,
                  "children": [
                    {
                      "nodeid": 29,
                      "leaf": 0.28161025
                    },
                    {
                      "nodeid": 30,
                      "leaf": -0.167680174
                    }
                  ]
                }
              ]
            }
          ]
        }
      ]
    }
]},
{
"name": "tree3",
"children": [
 {
      "nodeid": 0,
      "depth": 0,
      "name": "getInstallerPackageName",
      "size": 1,
      "yes": 1,
      "no": 2,
      "missing": 1,
      "children": [
        {
          "nodeid": 1,
          "depth": 1,
          "name": "getSubscriberId",
          "size": 1,
          "yes": 3,
          "no": 4,
          "missing": 3,
          "children": [
            {
              "nodeid": 3,
              "depth": 2,
              "name": "mprotect",
              "size": 313,
              "yes": 7,
              "no": 8,
              "missing": 7,
              "children": [
                {
                  "nodeid": 7,
                  "depth": 3,
                  "name": "fstat64",
                  "size": 10,
                  "yes": 15,
                  "no": 16,
                  "missing": 15,
                  "children": [
                    {
                      "nodeid": 15,
                      "depth": 4,
                      "name": "getInTouchMode",
                      "size": 1,
                      "yes": 27,
                      "no": 28,
                      "missing": 27,
                      "children": [
                        {
                          "nodeid": 27,
                          "depth": 5,
                          "name": "read",
                          "size": 193,
                          "yes": 43,
                          "no": 44,
                          "missing": 43,
                          "children": [
                            {
                              "nodeid": 43,
                              "leaf": 0.0711502358
                            },
                            {
                              "nodeid": 44,
                              "leaf": -0.189185485
                            }
                          ]
                        },
                        {
                          "nodeid": 28,
                          "depth": 5,
                          "name": "recvfrom",
                          "size": 54,
                          "yes": 45,
                          "no": 46,
                          "missing": 45,
                          "children": [
                            {
                              "nodeid": 45,
                              "leaf": 0.103989832
                            },
                            {
                              "nodeid": 46,
                              "leaf": 0.883157253
                            }
                          ]
                        }
                      ]
                    },
                    {
                      "nodeid": 16,
                      "depth": 4,
                      "name": "NETWORK_ACCESS(WRITE__)__",
                      "size": 1,
                      "yes": 29,
                      "no": 30,
                      "missing": 29,
                      "children": [
                        {
                          "nodeid": 29,
                          "depth": 5,
                          "name": "mkdir",
                          "size": 9,
                          "yes": 47,
                          "no": 48,
                          "missing": 47,
                          "children": [
                            {
                              "nodeid": 47,
                              "leaf": -0.19380793
                            },
                            {
                              "nodeid": 48,
                              "leaf": 0.202420726
                            }
                          ]
                        },
                        {
                          "nodeid": 30,
                          "depth": 5,
                          "name": "brk",
                          "size": 47,
                          "yes": 49,
                          "no": 50,
                          "missing": 49,
                          "children": [
                            {
                              "nodeid": 49,
                              "leaf": -0.160819665
                            },
                            {
                              "nodeid": 50,
                              "leaf": 0.608891845
                            }
                          ]
                        }
                      ]
                    }
                  ]
                },
                {
                  "nodeid": 8,
                  "depth": 3,
                  "name": "lseek",
                  "size": 31,
                  "yes": 17,
                  "no": 18,
                  "missing": 17,
                  "children": [
                    {
                      "nodeid": 17,
                      "depth": 4,
                      "name": "relayout",
                      "size": 46,
                      "yes": 31,
                      "no": 32,
                      "missing": 31,
                      "children": [
                        {
                          "nodeid": 31,
                          "depth": 5,
                          "name": "getNetworkInfo",
                          "size": 3,
                          "yes": 51,
                          "no": 52,
                          "missing": 51,
                          "children": [
                            {
                              "nodeid": 51,
                              "leaf": 0.422915161
                            },
                            {
                              "nodeid": 52,
                              "leaf": -0.0888666287
                            }
                          ]
                        },
                        {
                          "nodeid": 32,
                          "depth": 5,
                          "name": "NETWORK_ACCESS(WRITE)____",
                          "size": 2,
                          "yes": 53,
                          "no": 54,
                          "missing": 53,
                          "children": [
                            {
                              "nodeid": 53,
                              "leaf": -0
                            },
                            {
                              "nodeid": 54,
                              "leaf": -0.254891723
                            }
                          ]
                        }
                      ]
                    },
                    {
                      "nodeid": 18,
                      "depth": 4,
                      "name": "pread64",
                      "size": 77,
                      "yes": 33,
                      "no": 34,
                      "missing": 33,
                      "children": [
                        {
                          "nodeid": 33,
                          "depth": 5,
                          "name": "resolveIntent",
                          "size": 2,
                          "yes": 55,
                          "no": 56,
                          "missing": 55,
                          "children": [
                            {
                              "nodeid": 55,
                              "leaf": -0.0756045058
                            },
                            {
                              "nodeid": 56,
                              "leaf": 0.285241067
                            }
                          ]
                        },
                        {
                          "nodeid": 34,
                          "depth": 5,
                          "name": "mkdir",
                          "size": 16,
                          "yes": 57,
                          "no": 58,
                          "missing": 57,
                          "children": [
                            {
                              "nodeid": 57,
                              "leaf": 0.158264667
                            },
                            {
                              "nodeid": 58,
                              "leaf": 0.396981806
                            }
                          ]
                        }
                      ]
                    }
                  ]
                }
              ]
            },
            {
              "nodeid": 4,
              "depth": 2,
              "name": "disconnect",
              "size": 1,
              "yes": 9,
              "no": 10,
              "missing": 9,
              "children": [
                {
                  "nodeid": 9,
                  "depth": 3,
                  "name": "getDisplayFrame",
                  "size": 4,
                  "yes": 19,
                  "no": 20,
                  "missing": 19,
                  "children": [
                    {
                      "nodeid": 19,
                      "depth": 4,
                      "name": "getAccountsAsUser",
                      "size": 1,
                      "yes": 35,
                      "no": 36,
                      "missing": 35,
                      "children": [
                        {
                          "nodeid": 35,
                          "depth": 5,
                          "name": "pwrite64",
                          "size": 1721,
                          "yes": 59,
                          "no": 60,
                          "missing": 59,
                          "children": [
                            {
                              "nodeid": 59,
                              "leaf": -0.257651597
                            },
                            {
                              "nodeid": 60,
                              "leaf": 0.0432335623
                            }
                          ]
                        },
                        {
                          "nodeid": 36,
                          "leaf": 0.0922465175
                        }
                      ]
                    },
                    {
                      "nodeid": 20,
                      "leaf": 0.122153096
                    }
                  ]
                },
                {
                  "nodeid": 10,
                  "leaf": 0.41295597
                }
              ]
            }
          ]
        },
        {
          "nodeid": 2,
          "depth": 1,
          "name": "getSubscriberId",
          "size": 1,
          "yes": 5,
          "no": 6,
          "missing": 5,
          "children": [
            {
              "nodeid": 5,
              "depth": 2,
              "name": "getInstallerPackageName",
              "size": 12,
              "yes": 11,
              "no": 12,
              "missing": 11,
              "children": [
                {
                  "nodeid": 11,
                  "depth": 3,
                  "name": "cancelAllNotifications",
                  "size": 2,
                  "yes": 21,
                  "no": 22,
                  "missing": 21,
                  "children": [
                    {
                      "nodeid": 21,
                      "depth": 4,
                      "name": "brk",
                      "size": 32,
                      "yes": 37,
                      "no": 38,
                      "missing": 37,
                      "children": [
                        {
                          "nodeid": 37,
                          "leaf": -0
                        },
                        {
                          "nodeid": 38,
                          "depth": 5,
                          "name": "ftruncate64",
                          "size": 20,
                          "yes": 61,
                          "no": 62,
                          "missing": 61,
                          "children": [
                            {
                              "nodeid": 61,
                              "leaf": 0.302142471
                            },
                            {
                              "nodeid": 62,
                              "leaf": -0
                            }
                          ]
                        }
                      ]
                    },
                    {
                      "nodeid": 22,
                      "leaf": -0
                    }
                  ]
                },
                {
                  "nodeid": 12,
                  "depth": 3,
                  "name": "getsockopt",
                  "size": 53,
                  "yes": 23,
                  "no": 24,
                  "missing": 23,
                  "children": [
                    {
                      "nodeid": 23,
                      "leaf": -0.237710908
                    },
                    {
                      "nodeid": 24,
                      "leaf": 0.21125564
                    }
                  ]
                }
              ]
            },
            {
              "nodeid": 6,
              "depth": 2,
              "name": "getPackageInfo",
              "size": 9,
              "yes": 13,
              "no": 14,
              "missing": 13,
              "children": [
                {
                  "nodeid": 13,
                  "leaf": -0.21036236
                },
                {
                  "nodeid": 14,
                  "depth": 3,
                  "name": "getsockname",
                  "size": 38,
                  "yes": 25,
                  "no": 26,
                  "missing": 25,
                  "children": [
                    {
                      "nodeid": 25,
                      "depth": 4,
                      "name": "flock",
                      "size": 5,
                      "yes": 39,
                      "no": 40,
                      "missing": 39,
                      "children": [
                        {
                          "nodeid": 39,
                          "leaf": 0.29846999
                        },
                        {
                          "nodeid": 40,
                          "leaf": -0.118805505
                        }
                      ]
                    },
                    {
                      "nodeid": 26,
                      "depth": 4,
                      "name": "connect",
                      "size": 43,
                      "yes": 41,
                      "no": 42,
                      "missing": 41,
                      "children": [
                        {
                          "nodeid": 41,
                          "leaf": -0.195372164
                        },
                        {
                          "nodeid": 42,
                          "leaf": 0.0540453345
                        }
                      ]
                    }
                  ]
                }
              ]
            }
          ]
        }
      ]
    }
]},
{
"name": "tree4",
"children": [
{
      "nodeid": 0,
      "depth": 0,
      "name": "_newselect",
      "size": 1,
      "yes": 1,
      "no": 2,
      "missing": 1,
      "children": [
        {
          "nodeid": 1,
          "depth": 1,
          "name": "ACCESS_PERSONAL_INFO___",
          "size": 1,
          "yes": 3,
          "no": 4,
          "missing": 3,
          "children": [
            {
              "nodeid": 3,
              "depth": 2,
              "name": "mprotect",
              "size": 179,
              "yes": 7,
              "no": 8,
              "missing": 7,
              "children": [
                {
                  "nodeid": 7,
                  "depth": 3,
                  "name": "getPackageInfo",
                  "size": 3,
                  "yes": 15,
                  "no": 16,
                  "missing": 15,
                  "children": [
                    {
                      "nodeid": 15,
                      "depth": 4,
                      "name": "fstat64",
                      "size": 10,
                      "yes": 31,
                      "no": 32,
                      "missing": 31,
                      "children": [
                        {
                          "nodeid": 31,
                          "depth": 5,
                          "name": "write",
                          "size": 31,
                          "yes": 57,
                          "no": 58,
                          "missing": 57,
                          "children": [
                            {
                              "nodeid": 57,
                              "leaf": 0.166017741
                            },
                            {
                              "nodeid": 58,
                              "leaf": -0.0407310314
                            }
                          ]
                        },
                        {
                          "nodeid": 32,
                          "depth": 5,
                          "name": "pwrite64",
                          "size": 32,
                          "yes": 59,
                          "no": 60,
                          "missing": 59,
                          "children": [
                            {
                              "nodeid": 59,
                              "leaf": -0.22035332
                            },
                            {
                              "nodeid": 60,
                              "leaf": 0.315652281
                            }
                          ]
                        }
                      ]
                    },
                    {
                      "nodeid": 16,
                      "depth": 4,
                      "name": "getActivityInfo",
                      "size": 1,
                      "yes": 33,
                      "no": 34,
                      "missing": 33,
                      "children": [
                        {
                          "nodeid": 33,
                          "depth": 5,
                          "name": "epoll_wait",
                          "size": 41,
                          "yes": 61,
                          "no": 62,
                          "missing": 61,
                          "children": [
                            {
                              "nodeid": 61,
                              "leaf": 0.198306426
                            },
                            {
                              "nodeid": 62,
                              "leaf": 0.647649765
                            }
                          ]
                        },
                        {
                          "nodeid": 34,
                          "depth": 5,
                          "name": "fstat64",
                          "size": 20,
                          "yes": 63,
                          "no": 64,
                          "missing": 63,
                          "children": [
                            {
                              "nodeid": 63,
                              "leaf": 0.180980414
                            },
                            {
                              "nodeid": 64,
                              "leaf": -0.154665932
                            }
                          ]
                        }
                      ]
                    }
                  ]
                },
                {
                  "nodeid": 8,
                  "depth": 3,
                  "name": "write",
                  "size": 102,
                  "yes": 17,
                  "no": 18,
                  "missing": 17,
                  "children": [
                    {
                      "nodeid": 17,
                      "depth": 4,
                      "name": "writev",
                      "size": 92,
                      "yes": 35,
                      "no": 36,
                      "missing": 35,
                      "children": [
                        {
                          "nodeid": 35,
                          "depth": 5,
                          "name": "getInTouchMode",
                          "size": 3,
                          "yes": 65,
                          "no": 66,
                          "missing": 65,
                          "children": [
                            {
                              "nodeid": 65,
                              "leaf": 0.590904593
                            },
                            {
                              "nodeid": 66,
                              "leaf": -0
                            }
                          ]
                        },
                        {
                          "nodeid": 36,
                          "leaf": -0.0100974394
                        }
                      ]
                    },
                    {
                      "nodeid": 18,
                      "depth": 4,
                      "name": "ioctl",
                      "size": 3994,
                      "yes": 37,
                      "no": 38,
                      "missing": 37,
                      "children": [
                        {
                          "nodeid": 37,
                          "depth": 5,
                          "name": "writev",
                          "size": 33,
                          "yes": 67,
                          "no": 68,
                          "missing": 67,
                          "children": [
                            {
                              "nodeid": 67,
                              "leaf": -0.0350848772
                            },
                            {
                              "nodeid": 68,
                              "leaf": 0.218280882
                            }
                          ]
                        },
                        {
                          "nodeid": 38,
                          "depth": 5,
                          "name": "access",
                          "size": 87,
                          "yes": 69,
                          "no": 70,
                          "missing": 69,
                          "children": [
                            {
                              "nodeid": 69,
                              "leaf": -0.25100404
                            },
                            {
                              "nodeid": 70,
                              "leaf": 0.166248381
                            }
                          ]
                        }
                      ]
                    }
                  ]
                }
              ]
            },
            {
              "nodeid": 4,
              "depth": 2,
              "name": "resolveIntent",
              "size": 3,
              "yes": 9,
              "no": 10,
              "missing": 9,
              "children": [
                {
                  "nodeid": 9,
                  "depth": 3,
                  "name": "getAccountsAsUser",
                  "size": 1,
                  "yes": 19,
                  "no": 20,
                  "missing": 19,
                  "children": [
                    {
                      "nodeid": 19,
                      "depth": 4,
                      "name": "mprotect",
                      "size": 44,
                      "yes": 39,
                      "no": 40,
                      "missing": 39,
                      "children": [
                        {
                          "nodeid": 39,
                          "leaf": 0.369695157
                        },
                        {
                          "nodeid": 40,
                          "depth": 5,
                          "name": "getInstallerPackageName",
                          "size": 1,
                          "yes": 71,
                          "no": 72,
                          "missing": 71,
                          "children": [
                            {
                              "nodeid": 71,
                              "leaf": -0.231937572
                            },
                            {
                              "nodeid": 72,
                              "leaf": 0.118765637
                            }
                          ]
                        }
                      ]
                    },
                    {
                      "nodeid": 20,
                      "depth": 4,
                      "name": "access",
                      "size": 289,
                      "yes": 41,
                      "no": 42,
                      "missing": 41,
                      "children": [
                        {
                          "nodeid": 41,
                          "leaf": 0.342026621
                        },
                        {
                          "nodeid": 42,
                          "leaf": -0.11104776
                        }
                      ]
                    }
                  ]
                },
                {
                  "nodeid": 10,
                  "depth": 3,
                  "name": "NETWORK_ACCESS(WRITE)____",
                  "size": 6,
                  "yes": 21,
                  "no": 22,
                  "missing": 21,
                  "children": [
                    {
                      "nodeid": 21,
                      "depth": 4,
                      "name": "pread64",
                      "size": 11,
                      "yes": 43,
                      "no": 44,
                      "missing": 43,
                      "children": [
                        {
                          "nodeid": 43,
                          "leaf": -0.0044759931
                        },
                        {
                          "nodeid": 44,
                          "leaf": 0.266765237
                        }
                      ]
                    },
                    {
                      "nodeid": 22,
                      "leaf": -0.0932148695
                    }
                  ]
                }
              ]
            }
          ]
        },
        {
          "nodeid": 2,
          "depth": 1,
          "name": "getSubscriberId",
          "size": 1,
          "yes": 5,
          "no": 6,
          "missing": 5,
          "children": [
            {
              "nodeid": 5,
              "depth": 2,
              "name": "getDeviceId",
              "size": 5,
              "yes": 11,
              "no": 12,
              "missing": 11,
              "children": [
                {
                  "nodeid": 11,
                  "depth": 3,
                  "name": "FS_PIPE_ACCESS()___",
                  "size": 1,
                  "yes": 23,
                  "no": 24,
                  "missing": 23,
                  "children": [
                    {
                      "nodeid": 23,
                      "depth": 4,
                      "name": "NETWORK_ACCESS()____",
                      "size": 1,
                      "yes": 45,
                      "no": 46,
                      "missing": 45,
                      "children": [
                        {
                          "nodeid": 45,
                          "depth": 5,
                          "name": "mprotect",
                          "size": 531,
                          "yes": 73,
                          "no": 74,
                          "missing": 73,
                          "children": [
                            {
                              "nodeid": 73,
                              "leaf": 0.0144850826
                            },
                            {
                              "nodeid": 74,
                              "leaf": 0.278080642
                            }
                          ]
                        },
                        {
                          "nodeid": 46,
                          "depth": 5,
                          "name": "locationCallbackFinished",
                          "size": 4,
                          "yes": 75,
                          "no": 76,
                          "missing": 75,
                          "children": [
                            {
                              "nodeid": 75,
                              "leaf": 0.289873898
                            },
                            {
                              "nodeid": 76,
                              "leaf": -0.0429337062
                            }
                          ]
                        }
                      ]
                    },
                    {
                      "nodeid": 24,
                      "leaf": -0.173962057
                    }
                  ]
                },
                {
                  "nodeid": 12,
                  "depth": 3,
                  "name": "mprotect",
                  "size": 787,
                  "yes": 25,
                  "no": 26,
                  "missing": 25,
                  "children": [
                    {
                      "nodeid": 25,
                      "leaf": -0.296434104
                    },
                    {
                      "nodeid": 26,
                      "depth": 4,
                      "name": "_newselect",
                      "size": 82,
                      "yes": 47,
                      "no": 48,
                      "missing": 47,
                      "children": [
                        {
                          "nodeid": 47,
                          "leaf": 0.264359385
                        },
                        {
                          "nodeid": 48,
                          "leaf": -3.46309425e-05
                        }
                      ]
                    }
                  ]
                }
              ]
            },
            {
              "nodeid": 6,
              "depth": 2,
              "name": "sigprocmask",
              "size": 375,
              "yes": 13,
              "no": 14,
              "missing": 13,
              "children": [
                {
                  "nodeid": 13,
                  "depth": 3,
                  "name": "getPackageInfo",
                  "size": 18,
                  "yes": 27,
                  "no": 28,
                  "missing": 27,
                  "children": [
                    {
                      "nodeid": 27,
                      "depth": 4,
                      "name": "epoll_create",
                      "size": 2,
                      "yes": 49,
                      "no": 50,
                      "missing": 49,
                      "children": [
                        {
                          "nodeid": 49,
                          "leaf": -0
                        },
                        {
                          "nodeid": 50,
                          "depth": 5,
                          "name": "read",
                          "size": 10730,
                          "yes": 77,
                          "no": 78,
                          "missing": 77,
                          "children": [
                            {
                              "nodeid": 77,
                              "leaf": -0.245114654
                            },
                            {
                              "nodeid": 78,
                              "leaf": -0
                            }
                          ]
                        }
                      ]
                    },
                    {
                      "nodeid": 28,
                      "depth": 4,
                      "name": "connect",
                      "size": 26,
                      "yes": 51,
                      "no": 52,
                      "missing": 51,
                      "children": [
                        {
                          "nodeid": 51,
                          "depth": 5,
                          "name": "FS_ACCESS____",
                          "size": 107,
                          "yes": 79,
                          "no": 80,
                          "missing": 79,
                          "children": [
                            {
                              "nodeid": 79,
                              "leaf": -0
                            },
                            {
                              "nodeid": 80,
                              "leaf": 0.310024947
                            }
                          ]
                        },
                        {
                          "nodeid": 52,
                          "depth": 5,
                          "name": "FS_ACCESS()____",
                          "size": 25,
                          "yes": 81,
                          "no": 82,
                          "missing": 81,
                          "children": [
                            {
                              "nodeid": 81,
                              "leaf": 0.00840628799
                            },
                            {
                              "nodeid": 82,
                              "leaf": -0.211017326
                            }
                          ]
                        }
                      ]
                    }
                  ]
                },
                {
                  "nodeid": 14,
                  "depth": 3,
                  "name": "sendto",
                  "size": 23,
                  "yes": 29,
                  "no": 30,
                  "missing": 29,
                  "children": [
                    {
                      "nodeid": 29,
                      "depth": 4,
                      "name": "execve",
                      "size": 7,
                      "yes": 53,
                      "no": 54,
                      "missing": 53,
                      "children": [
                        {
                          "nodeid": 53,
                          "leaf": 0.338856846
                        },
                        {
                          "nodeid": 54,
                          "depth": 5,
                          "name": "getInstallerPackageName",
                          "size": 1,
                          "yes": 83,
                          "no": 84,
                          "missing": 83,
                          "children": [
                            {
                              "nodeid": 83,
                              "leaf": -0.128350258
                            },
                            {
                              "nodeid": 84,
                              "leaf": 0.154594526
                            }
                          ]
                        }
                      ]
                    },
                    {
                      "nodeid": 30,
                      "depth": 4,
                      "name": "pread64",
                      "size": 680,
                      "yes": 55,
                      "no": 56,
                      "missing": 55,
                      "children": [
                        {
                          "nodeid": 55,
                          "leaf": -0.19515945
                        },
                        {
                          "nodeid": 56,
                          "leaf": -0
                        }
                      ]
                    }
                  ]
                }
              ]
            }
          ]
        }
      ]
    }
]},
{
"name": "tree5",
"children": [
{
      "nodeid": 0,
      "depth": 0,
      "name": "getInstallerPackageName",
      "size": 1,
      "yes": 1,
      "no": 2,
      "missing": 1,
      "children": [
        {
          "nodeid": 1,
          "depth": 1,
          "name": "ACCESS_PERSONAL_INFO___",
          "size": 2,
          "yes": 3,
          "no": 4,
          "missing": 3,
          "children": [
            {
              "nodeid": 3,
              "depth": 2,
              "name": "mprotect",
              "size": 275,
              "yes": 7,
              "no": 8,
              "missing": 7,
              "children": [
                {
                  "nodeid": 7,
                  "depth": 3,
                  "name": "queryIntentServices",
                  "size": 1,
                  "yes": 15,
                  "no": 16,
                  "missing": 15,
                  "children": [
                    {
                      "nodeid": 15,
                      "depth": 4,
                      "name": "fdatasync",
                      "size": 40,
                      "yes": 31,
                      "no": 32,
                      "missing": 31,
                      "children": [
                        {
                          "nodeid": 31,
                          "depth": 5,
                          "name": "fstat64",
                          "size": 10,
                          "yes": 55,
                          "no": 56,
                          "missing": 55,
                          "children": [
                            {
                              "nodeid": 55,
                              "leaf": 0.0236590747
                            },
                            {
                              "nodeid": 56,
                              "leaf": -0.11223001
                            }
                          ]
                        },
                        {
                          "nodeid": 32,
                          "leaf": 0.457374781
                        }
                      ]
                    },
                    {
                      "nodeid": 16,
                      "leaf": 0.39056474
                    }
                  ]
                },
                {
                  "nodeid": 8,
                  "depth": 3,
                  "name": "ftruncate",
                  "size": 1,
                  "yes": 17,
                  "no": 18,
                  "missing": 17,
                  "children": [
                    {
                      "nodeid": 17,
                      "depth": 4,
                      "name": "flock",
                      "size": 6,
                      "yes": 33,
                      "no": 34,
                      "missing": 33,
                      "children": [
                        {
                          "nodeid": 33,
                          "depth": 5,
                          "name": "getpriority",
                          "size": 169,
                          "yes": 57,
                          "no": 58,
                          "missing": 57,
                          "children": [
                            {
                              "nodeid": 57,
                              "leaf": 0.250458658
                            },
                            {
                              "nodeid": 58,
                              "leaf": -0.0672130063
                            }
                          ]
                        },
                        {
                          "nodeid": 34,
                          "depth": 5,
                          "name": "write",
                          "size": 212,
                          "yes": 59,
                          "no": 60,
                          "missing": 59,
                          "children": [
                            {
                              "nodeid": 59,
                              "leaf": -0
                            },
                            {
                              "nodeid": 60,
                              "leaf": -0.227310389
                            }
                          ]
                        }
                      ]
                    },
                    {
                      "nodeid": 18,
                      "depth": 4,
                      "name": "epoll_create",
                      "size": 9,
                      "yes": 35,
                      "no": 36,
                      "missing": 35,
                      "children": [
                        {
                          "nodeid": 35,
                          "depth": 5,
                          "name": "mremap",
                          "size": 2,
                          "yes": 61,
                          "no": 62,
                          "missing": 61,
                          "children": [
                            {
                              "nodeid": 61,
                              "leaf": -0.216344267
                            },
                            {
                              "nodeid": 62,
                              "leaf": 0.239780709
                            }
                          ]
                        },
                        {
                          "nodeid": 36,
                          "depth": 5,
                          "name": "getInTouchMode",
                          "size": 4,
                          "yes": 63,
                          "no": 64,
                          "missing": 63,
                          "children": [
                            {
                              "nodeid": 63,
                              "leaf": 0.298010349
                            },
                            {
                              "nodeid": 64,
                              "leaf": -0.0983952284
                            }
                          ]
                        }
                      ]
                    }
                  ]
                }
              ]
            },
            {
              "nodeid": 4,
              "depth": 2,
              "name": "resolveIntent",
              "size": 3,
              "yes": 9,
              "no": 10,
              "missing": 9,
              "children": [
                {
                  "nodeid": 9,
                  "depth": 3,
                  "name": "FS_PIPE_ACCESS(WRITE)___",
                  "size": 1,
                  "yes": 19,
                  "no": 20,
                  "missing": 19,
                  "children": [
                    {
                      "nodeid": 19,
                      "depth": 4,
                      "name": "getApplicationInfo",
                      "size": 40,
                      "yes": 37,
                      "no": 38,
                      "missing": 37,
                      "children": [
                        {
                          "nodeid": 37,
                          "depth": 5,
                          "name": "pwrite64",
                          "size": 1181,
                          "yes": 65,
                          "no": 66,
                          "missing": 65,
                          "children": [
                            {
                              "nodeid": 65,
                              "leaf": -0.229486212
                            },
                            {
                              "nodeid": 66,
                              "leaf": 0.113069125
                            }
                          ]
                        },
                        {
                          "nodeid": 38,
                          "depth": 5,
                          "name": "getSubscriberId",
                          "size": 1,
                          "yes": 67,
                          "no": 68,
                          "missing": 67,
                          "children": [
                            {
                              "nodeid": 67,
                              "leaf": 0.389023036
                            },
                            {
                              "nodeid": 68,
                              "leaf": -0.129179329
                            }
                          ]
                        }
                      ]
                    },
                    {
                      "nodeid": 20,
                      "depth": 4,
                      "name": "sendto",
                      "size": 9,
                      "yes": 39,
                      "no": 40,
                      "missing": 39,
                      "children": [
                        {
                          "nodeid": 39,
                          "depth": 5,
                          "name": "pread64",
                          "size": 50,
                          "yes": 69,
                          "no": 70,
                          "missing": 69,
                          "children": [
                            {
                              "nodeid": 69,
                              "leaf": -0.143787771
                            },
                            {
                              "nodeid": 70,
                              "leaf": 0.280386209
                            }
                          ]
                        },
                        {
                          "nodeid": 40,
                          "depth": 5,
                          "name": "getPackageInfo",
                          "size": 44,
                          "yes": 71,
                          "no": 72,
                          "missing": 71,
                          "children": [
                            {
                              "nodeid": 71,
                              "leaf": -0.226390168
                            },
                            {
                              "nodeid": 72,
                              "leaf": 0.0861097798
                            }
                          ]
                        }
                      ]
                    }
                  ]
                },
                {
                  "nodeid": 10,
                  "depth": 3,
                  "name": "getApplicationInfo",
                  "size": 20,
                  "yes": 21,
                  "no": 22,
                  "missing": 21,
                  "children": [
                    {
                      "nodeid": 21,
                      "depth": 4,
                      "name": "NETWORK_ACCESS(WRITE)____",
                      "size": 6,
                      "yes": 41,
                      "no": 42,
                      "missing": 41,
                      "children": [
                        {
                          "nodeid": 41,
                          "leaf": 0.265401989
                        },
                        {
                          "nodeid": 42,
                          "leaf": -0.00540934596
                        }
                      ]
                    },
                    {
                      "nodeid": 22,
                      "leaf": -0.0572164021
                    }
                  ]
                }
              ]
            }
          ]
        },
        {
          "nodeid": 2,
          "depth": 1,
          "name": "wait4",
          "size": 2,
          "yes": 5,
          "no": 6,
          "missing": 5,
          "children": [
            {
              "nodeid": 5,
              "depth": 2,
              "name": "getDeviceId",
              "size": 2,
              "yes": 11,
              "no": 12,
              "missing": 11,
              "children": [
                {
                  "nodeid": 11,
                  "depth": 3,
                  "name": "enqueueNotificationWithTag",
                  "size": 1,
                  "yes": 23,
                  "no": 24,
                  "missing": 23,
                  "children": [
                    {
                      "nodeid": 23,
                      "depth": 4,
                      "name": "NETWORK_ACCESS(WRITE)____",
                      "size": 9,
                      "yes": 43,
                      "no": 44,
                      "missing": 43,
                      "children": [
                        {
                          "nodeid": 43,
                          "depth": 5,
                          "name": "shutdown",
                          "size": 5,
                          "yes": 73,
                          "no": 74,
                          "missing": 73,
                          "children": [
                            {
                              "nodeid": 73,
                              "leaf": 0.275927067
                            },
                            {
                              "nodeid": 74,
                              "leaf": 0.0180242229
                            }
                          ]
                        },
                        {
                          "nodeid": 44,
                          "depth": 5,
                          "name": "gettimeofday",
                          "size": 1122,
                          "yes": 75,
                          "no": 76,
                          "missing": 75,
                          "children": [
                            {
                              "nodeid": 75,
                              "leaf": -0.0617511012
                            },
                            {
                              "nodeid": 76,
                              "leaf": 0.188922673
                            }
                          ]
                        }
                      ]
                    },
                    {
                      "nodeid": 24,
